{
  "learner": {
    "attributes": {
      "scikit_learn": "{\"_estimator_type\": \"classifier\"}"
    },
    "feature_names": [],
    "feature_types": [],
    "gradient_booster": {
      "model": {
        "gbtree_model_param": {
          "num_parallel_tree": "1",
          "num_trees": "1"
        },
        "iteration_indptr": [
          0,
          1
        ],
        "tree_info": [
          0
        ],
        "trees": [
          {
            "base_weights": [
              -3.3802866E-8,
              1.8656437E0,
              -1.538925E0,
              1.9884424E0,
              7.401848E-1,
              -1.7457906E0,
              -1.9638585E-1,
              -1.9336925E-1,
              1.9908518E0,
              1.1722729E0,
              -1.3371552E0,
              -1.7844826E0,
              2.6071563E-1,
              6.6988355E-1,
              -1.3532947E0,
              1.992079E0,
              -1.8714248E-1,
              1.4046293E0,
              -1.9957748E-1,
              1.0711896E0,
              -1.9998282E-1,
              -1.105418E0,
              -1.8893374E0,
              1.2804174E0,
              -1.9964747E-1,
              1.1815443E0,
              -6.777331E-1,
              -1.7921915E0,
              1.4196926E-1,
              -1.7357188E-1,
              1.9926391E0,
              -1.9937113E-1,
              1.6083772E0,
              1.9429324E0,
              -1.955905E-1,
              -1.5587748E0,
              1.5424164E-1,
              -9.1132864E-2,
              -1.9133528E0,
              -1.9806232E-1,
              1.7571454E0,
              1.3792987E0,
              -1.9928873E-1,
              -2.0000246E-1,
              9.9925524E-1,
              -2.001941E-1,
              -2.1708546E-2,
              1.02408E0,
              -1.9943115E-1,
              1.9946787E-1,
              1.4248937E0,
              -1.980984E-1,
              1.6997464E0,
              1.9835484E-1,
              -1.2016509E-1,
              -1.8619155E0,
              -4.1699687E-1,
              1.6712581E0,
              -9.408873E-1,
              -1.9961596E-1,
              1.8130152E0,
              -1.9481177E0,
              -1.4096473E0,
              1.9111288E0,
              -1.923436E-1,
              1.7346233E0,
              2.4091509E-1,
              -1.9839035E-1,
              1.6659712E0,
              1.7699535E0,
              -1.9884732E-1,
              -1.9760495E-1,
              1.471687E0,
              -1.9218336E-1,
              1.9835484E-1,
              -1.961459E-1,
              1.7493004E0,
              -2.0022316E-1,
              3.7433546E-2,
              -1.9990374E-1,
              1.1108077E0,
              1.8445041E0,
              -1.947883E-1,
              -1.999983E-1,
              1.1301335E0,
              -1.8622087E-1,
              1.9869438E-1,
              -1.9738483E0,
              -1.4975086E0,
              -1.7671468E0,
              4.8099643E-1,
              1.9664308E0,
              -1.7862388E-1,
              1.8013825E0,
              -1.9577472E-1,
              1.6050677E0,
              -1.995941E-1,
              -1.9285768E-1,
              1.8789324E0,
              1.9699171E-1,
              -1.7738666E-1,
              -1.9451198E-1,
              1.7229686E0,
              -1.9486246E-1,
              1.7877497E-1,
              -1.988161E-1,
              1.9097126E-1,
              -1.9789813E-1,
              1.65632E-1,
              1.9015507E-1,
              -1.8358567E-1,
              1.7092058E-1,
              -1.9686636E-1,
              -1.365627E-1,
              -1.9879395E-1,
              -2.0016415E-1,
              3.428535E-2,
              -2.3396157E-3,
              -2.0018314E-1,
              1.5801941E-1,
              -1.9888692E-1,
              1.9834988E-1,
              -1.4305371E-1,
              1.841638E-1,
              -1.9271773E-1,
              -1.9503933E-1,
              1.9073038E-1,
              -1.8206842E-1,
              1.9675742E-1,
              1.8659763E-1,
              -1.893013E-1
            ],
            "categories": [],
            "categories_nodes": [],
            "categories_segments": [],
            "categories_sizes": [],
            "default_left": [
              0,
              0,
              0,
              0,
              0,
              0,
              0,
              0,
              0,
              0,
              0,
              0,
              0,
              0,
              0,
              0,
              0,
              0,
              0,
              0,
              0,
              0,
              0,
              0,
              0,
              0,
              0,
              0,
              0,
              0,
              0,
              0,
              0,
              0,
              0,
              0,
              0,
              0,
              0,
              0,
              0,
              0,
              0,
              0,
              0,
              0,
              0,
              0,
              0,
              0,
              0,
              0,
              0,
              0,
              0,
              0,
              0,
              0,
              0,
              0,
              0,
              0,
              0,
              0,
              0,
              0,
              0,
              0,
              0,
              0,
              0,
              0,
              0,
              0,
              0,
              0,
              0,
              0,
              0,
              0,
              0,
              0,
              0,
              0,
              0,
              0,
              0,
              0,
              0,
              0,
              0,
              0,
              0,
              0,
              0,
              0,
              0,
              0,
              0,
              0,
              0,
              0,
              0,
              0,
              0,
              0,
              0,
              0,
              0,
              0,
              0,
              0,
              0,
              0,
              0,
              0,
              0,
              0,
              0,
              0,
              0,
              0,
              0,
              0,
              0,
              0,
              0,
              0,
              0,
              0,
              0
            ],
            "id": 0,
            "left_children": [
              1,
              3,
              5,
              7,
              9,
              11,
              13,
              -1,
              15,
              17,
              19,
              21,
              23,
              25,
              27,
              29,
              -1,
              31,
              -1,
              33,
              -1,
              35,
              37,
              39,
              -1,
              41,
              43,
              45,
              47,
              -1,
              49,
              -1,
              51,
              53,
              -1,
              55,
              57,
              59,
              61,
              -1,
              63,
              65,
              -1,
              -1,
              67,
              -1,
              69,
              71,
              -1,
              -1,
              73,
              -1,
              75,
              -1,
              -1,
              77,
              79,
              81,
              83,
              -1,
              85,
              87,
              89,
              91,
              -1,
              93,
              95,
              -1,
              97,
              99,
              -1,
              -1,
              101,
              -1,
              -1,
              -1,
              103,
              -1,
              105,
              -1,
              107,
              109,
              -1,
              -1,
              111,
              -1,
              -1,
              113,
              115,
              117,
              119,
              121,
              -1,
              123,
              -1,
              125,
              -1,
              -1,
              127,
              -1,
              -1,
              -1,
              129,
              -1,
              -1,
              -1,
              -1,
              -1,
              -1,
              -1,
              -1,
              -1,
              -1,
              -1,
              -1,
              -1,
              -1,
              -1,
              -1,
              -1,
              -1,
              -1,
              -1,
              -1,
              -1,
              -1,
              -1,
              -1,
              -1,
              -1,
              -1
            ],
            "loss_changes": [
              3.2697022E5,
              7.1129688E3,
              1.7331484E4,
              4.424375E2,
              4.548551E3,
              4.198547E3,
              8.352375E3,
              0E0,
              2.2357812E2,
              3.0900962E3,
              1.3949514E3,
              3.7753281E3,
              2.3591675E3,
              3.2869338E3,
              2.3420557E3,
              1.00265625E2,
              0E0,
              2.7091445E3,
              0E0,
              5.0245966E2,
              0E0,
              4.053958E3,
              1.9843281E3,
              1.1008538E3,
              0E0,
              2.171435E3,
              2.9116582E3,
              1.0244258E3,
              1.529671E3,
              0E0,
              5.0859375E1,
              0E0,
              1.2127207E3,
              2.1186401E1,
              0E0,
              1.8059209E3,
              3.1240884E3,
              2.2043472E3,
              7.913281E2,
              0E0,
              3.5300513E2,
              1.3152666E3,
              0E0,
              0E0,
              1.1551996E3,
              0E0,
              1.0367561E3,
              7.742657E2,
              0E0,
              0E0,
              3.206617E2,
              0E0,
              6.559385E2,
              0E0,
              0E0,
              1.0992812E3,
              2.6522847E3,
              4.9788574E2,
              2.3978708E3,
              0E0,
              1.9798492E2,
              4.8885938E2,
              1.9821958E3,
              1.2458545E2,
              0E0,
              6.1453906E2,
              2.3677605E3,
              0E0,
              3.6639856E2,
              1.1260199E2,
              0E0,
              0E0,
              4.3299036E2,
              0E0,
              0E0,
              0E0,
              5.0809473E2,
              0E0,
              1.0835854E3,
              0E0,
              9.444809E2,
              1.6155249E2,
              0E0,
              0E0,
              6.6763916E2,
              0E0,
              0E0,
              3.4117188E2,
              2.1303594E3,
              1.00889844E3,
              1.2708165E3,
              3.669043E1,
              0E0,
              3.690669E2,
              0E0,
              5.2157056E2,
              0E0,
              0E0,
              1.50469E2,
              0E0,
              0E0,
              0E0,
              2.4484656E2,
              0E0,
              0E0,
              0E0,
              0E0,
              0E0,
              0E0,
              0E0,
              0E0,
              0E0,
              0E0,
              0E0,
              0E0,
              0E0,
              0E0,
              0E0,
              0E0,
              0E0,
              0E0,
              0E0,
              0E0,
              0E0,
              0E0,
              0E0,
              0E0,
              0E0,
              0E0,
              0E0,
              0E0
            ],
            "parents": [
              2147483647,
              0,
              0,
              1,
              1,
              2,
              2,
              3,
              3,
              4,
              4,
              5,
              5,
              6,
              6,
              8,
              8,
              9,
              9,
              10,
              10,
              11,
              11,
              12,
              12,
              13,
              13,
              14,
              14,
              15,
              15,
              17,
              17,
              19,
              19,
              21,
              21,
              22,
              22,
              23,
              23,
              25,
              25,
              26,
              26,
              27,
              27,
              28,
              28,
              30,
              30,
              32,
              32,
              33,
              33,
              35,
              35,
              36,
              36,
              37,
              37,
              38,
              38,
              40,
              40,
              41,
              41,
              44,
              44,
              46,
              46,
              47,
              47,
              50,
              50,
              52,
              52,
              55,
              55,
              56,
              56,
              57,
              57,
              58,
              58,
              60,
              60,
              61,
              61,
              62,
              62,
              63,
              63,
              65,
              65,
              66,
              66,
              68,
              68,
              69,
              69,
              72,
              72,
              76,
              76,
              78,
              78,
              80,
              80,
              81,
              81,
              84,
              84,
              87,
              87,
              88,
              88,
              89,
              89,
              90,
              90,
              91,
              91,
              93,
              93,
              95,
              95,
              98,
              98,
              102,
              102
            ],
            "right_children": [
              2,
              4,
              6,
              8,
              10,
              12,
              14,
              -1,
              16,
              18,
              20,
              22,
              24,
              26,
              28,
              30,
              -1,
              32,
              -1,
              34,
              -1,
              36,
              38,
              40,
              -1,
              42,
              44,
              46,
              48,
              -1,
              50,
              -1,
              52,
              54,
              -1,
              56,
              58,
              60,
              62,
              -1,
              64,
              66,
              -1,
              -1,
              68,
              -1,
              70,
              72,
              -1,
              -1,
              74,
              -1,
              76,
              -1,
              -1,
              78,
              80,
              82,
              84,
              -1,
              86,
              88,
              90,
              92,
              -1,
              94,
              96,
              -1,
              98,
              100,
              -1,
              -1,
              102,
              -1,
              -1,
              -1,
              104,
              -1,
              106,
              -1,
              108,
              110,
              -1,
              -1,
              112,
              -1,
              -1,
              114,
              116,
              118,
              120,
              122,
              -1,
              124,
              -1,
              126,
              -1,
              -1,
              128,
              -1,
              -1,
              -1,
              130,
              -1,
              -1,
              -1,
              -1,
              -1,
              -1,
              -1,
              -1,
              -1,
              -1,
              -1,
              -1,
              -1,
              -1,
              -1,
              -1,
              -1,
              -1,
              -1,
              -1,
              -1,
              -1,
              -1,
              -1,
              -1,
              -1,
              -1,
              -1
            ],
            "split_conditions": [
              -1.7919981E0,
              -1.4326483E0,
              1.6183813E0,
              -6.4566904E-1,
              3.208446E-1,
              2.5015008E0,
              1.20916135E-4,
              -1.9336925E-1,
              1.1040987E0,
              4.764953E-1,
              -6.111063E-1,
              -8.076299E-1,
              -3.3100858E-1,
              -2.3424065E-1,
              9.722859E-1,
              -7.0538425E-1,
              -1.8714248E-1,
              -7.6180583E-1,
              -1.9957748E-1,
              -1.4521915E0,
              -1.9998282E-1,
              7.4113834E-1,
              -1.3892003E0,
              2.3149592E-1,
              -1.9964747E-1,
              1.2316213E0,
              7.656377E-1,
              1.2172738E0,
              9.6929885E-2,
              -1.7357188E-1,
              -2.6465015E0,
              -1.9937113E-1,
              -6.059134E-2,
              -8.290943E-1,
              -1.955905E-1,
              4.92613E-1,
              -5.629428E-1,
              -1.7423236E0,
              6.2266856E-1,
              -1.9806232E-1,
              -2.6367006E-1,
              2.7743608E-1,
              -1.9928873E-1,
              -2.0000246E-1,
              4.4092757E-1,
              -2.001941E-1,
              1.2395722E0,
              1.0065977E-2,
              -1.9943115E-1,
              1.9946787E-1,
              3.5613778E0,
              -1.980984E-1,
              -6.2899643E-1,
              1.9835484E-1,
              -1.2016509E-1,
              1.4792702E0,
              1.1905121E0,
              5.2986884E-1,
              1.4792702E0,
              -1.9961596E-1,
              -4.5335245E-1,
              1.9417264E0,
              1.156471E0,
              -4.2759994E-1,
              -1.923436E-1,
              1.6088654E0,
              -2.6906626E0,
              -1.9839035E-1,
              1.3492903E-1,
              -6.66298E-1,
              -1.9884732E-1,
              -1.9760495E-1,
              1.10795945E-1,
              -1.9218336E-1,
              1.9835484E-1,
              -1.961459E-1,
              -1.6231717E-1,
              -2.0022316E-1,
              1.2749965E0,
              -1.9990374E-1,
              -4.9793404E-2,
              -1.181342E-1,
              -1.947883E-1,
              -1.999983E-1,
              3.1325653E-2,
              -1.8622087E-1,
              1.9869438E-1,
              -2.0439138E0,
              9.0816534E-1,
              -1.5004588E0,
              -7.7299404E-1,
              7.4366397E-1,
              -1.7862388E-1,
              1.1952424E0,
              -1.9577472E-1,
              2.185489E-1,
              -1.995941E-1,
              -1.9285768E-1,
              4.6233398E-1,
              1.9699171E-1,
              -1.7738666E-1,
              -1.9451198E-1,
              1.0081327E0,
              -1.9486246E-1,
              1.7877497E-1,
              -1.988161E-1,
              1.9097126E-1,
              -1.9789813E-1,
              1.65632E-1,
              1.9015507E-1,
              -1.8358567E-1,
              1.7092058E-1,
              -1.9686636E-1,
              -1.365627E-1,
              -1.9879395E-1,
              -2.0016415E-1,
              3.428535E-2,
              -2.3396157E-3,
              -2.0018314E-1,
              1.5801941E-1,
              -1.9888692E-1,
              1.9834988E-1,
              -1.4305371E-1,
              1.841638E-1,
              -1.9271773E-1,
              -1.9503933E-1,
              1.9073038E-1,
              -1.8206842E-1,
              1.9675742E-1,
              1.8659763E-1,
              -1.893013E-1
            ],
            "split_indices": [
              13,
              11,
              3,
              3,
              14,
              6,
              7,
              0,
              9,
              25,
              25,
              13,
              25,
              11,
              13,
              10,
              0,
              3,
              0,
              9,
              0,
              3,
              19,
              14,
              0,
              2,
              21,
              11,
              17,
              0,
              13,
              0,
              15,
              1,
              0,
              24,
              11,
              0,
              19,
              0,
              12,
              13,
              0,
              0,
              10,
              0,
              11,
              20,
              0,
              0,
              1,
              0,
              4,
              0,
              0,
              10,
              0,
              17,
              10,
              0,
              7,
              2,
              18,
              15,
              0,
              6,
              11,
              0,
              23,
              8,
              0,
              0,
              12,
              0,
              0,
              0,
              26,
              0,
              17,
              0,
              20,
              9,
              0,
              0,
              27,
              0,
              0,
              15,
              21,
              12,
              23,
              5,
              0,
              0,
              0,
              22,
              0,
              0,
              5,
              0,
              0,
              0,
              12,
              0,
              0,
              0,
              0,
              0,
              0,
              0,
              0,
              0,
              0,
              0,
              0,
              0,
              0,
              0,
              0,
              0,
              0,
              0,
              0,
              0,
              0,
              0,
              0,
              0,
              0,
              0,
              0
            ],
            "split_type": [
              0,
              0,
              0,
              0,
              0,
              0,
              0,
              0,
              0,
              0,
              0,
              0,
              0,
              0,
              0,
              0,
              0,
              0,
              0,
              0,
              0,
              0,
              0,
              0,
              0,
              0,
              0,
              0,
              0,
              0,
              0,
              0,
              0,
              0,
              0,
              0,
              0,
              0,
              0,
              0,
              0,
              0,
              0,
              0,
              0,
              0,
              0,
              0,
              0,
              0,
              0,
              0,
              0,
              0,
              0,
              0,
              0,
              0,
              0,
              0,
              0,
              0,
              0,
              0,
              0,
              0,
              0,
              0,
              0,
              0,
              0,
              0,
              0,
              0,
              0,
              0,
              0,
              0,
              0,
              0,
              0,
              0,
              0,
              0,
              0,
              0,
              0,
              0,
              0,
              0,
              0,
              0,
              0,
              0,
              0,
              0,
              0,
              0,
              0,
              0,
              0,
              0,
              0,
              0,
              0,
              0,
              0,
              0,
              0,
              0,
              0,
              0,
              0,
              0,
              0,
              0,
              0,
              0,
              0,
              0,
              0,
              0,
              0,
              0,
              0,
              0,
              0,
              0,
              0,
              0,
              0
            ],
            "sum_hessian": [
              1.1388182E5,
              5.1476492E4,
              6.2405332E4,
              4.6411746E4,
              5.0647466E3,
              5.4073152E4,
              8.332179E3,
              2.7999947E1,
              4.6383746E4,
              4.1930293E3,
              8.7171735E2,
              5.3050277E4,
              1.0228741E3,
              4.764809E3,
              3.5673691E3,
              4.6369496E4,
              1.4249973E1,
              3.9070298E3,
              2.8599945E2,
              1.8796866E2,
              6.837487E2,
              7.0973955E3,
              4.5952883E4,
              7.048747E2,
              3.179994E2,
              3.4536545E3,
              1.3111545E3,
              2.7577139E3,
              8.096555E2,
              6.4999876E0,
              4.6362996E4,
              2.2049957E2,
              3.6865303E3,
              1.4621873E2,
              4.174992E1,
              5.218866E3,
              1.8785295E3,
              6.056869E2,
              4.5347195E4,
              8.949983E1,
              6.153749E2,
              3.251655E3,
              2.0199962E2,
              7.329986E2,
              5.7815594E2,
              2.4654954E3,
              2.9221844E2,
              5.7340594E2,
              2.3624954E2,
              4.6194527E4,
              1.6846869E2,
              9.0999825E1,
              3.5955303E3,
              1.4471873E2,
              1.4999971E0,
              4.123461E3,
              1.0954049E3,
              7.8734357E2,
              1.0911859E3,
              3.0274942E2,
              3.0293744E2,
              4.2416797E4,
              2.9304014E3,
              5.9112494E2,
              2.4249954E1,
              2.4777495E3,
              7.739056E2,
              1.052498E2,
              4.7290613E2,
              1.5296872E2,
              1.3924974E2,
              7.399986E1,
              4.9940607E2,
              2.3749954E1,
              1.4471873E2,
              4.749991E1,
              3.5480305E3,
              3.8397427E3,
              2.8371848E2,
              5.3799896E2,
              5.5740594E2,
              7.518436E2,
              3.549993E1,
              7.219986E2,
              3.6918732E2,
              1.3249975E1,
              2.8968747E2,
              4.0122363E4,
              2.2944336E3,
              2.4644644E3,
              4.6593713E2,
              5.8287494E2,
              8.249985E0,
              2.4342495E3,
              4.3499916E1,
              4.8090613E2,
              2.9299945E2,
              2.599995E1,
              4.469062E2,
              1.4521873E2,
              7.749985E0,
              3.3749935E1,
              4.6565616E2,
              3.599993E1,
              3.5120305E3,
              1.3624974E2,
              1.4746873E2,
              8.324984E1,
              4.7415613E2,
              7.408436E2,
              1.0999979E1,
              3.1143744E2,
              5.774989E1,
              9.107173E2,
              3.9211645E4,
              1.8009966E3,
              4.9343707E2,
              2.9246844E2,
              2.1719958E3,
              3.226874E2,
              1.4324973E2,
              5.8037494E2,
              2.4999952E0,
              2.4087495E3,
              2.549995E1,
              3.7249928E1,
              4.436562E2,
              9.999981E0,
              4.369062E2,
              4.484062E2,
              1.7249968E1
            ],
            "tree_param": {
              "num_deleted": "0",
              "num_feature": "28",
              "num_nodes": "131",
              "size_leaf_vector": "1"
            }
          }
        ]
      },
      "name": "gbtree"
    },
    "learner_model_param": {
      "base_score": "5.006873E-1",
      "boost_from_average": "1",
      "num_class": "0",
      "num_feature": "28",
      "num_target": "1"
    },
    "objective": {
      "name": "binary:logistic",
      "reg_loss_param": {
        "scale_pos_weight": "578.876038"
      }
    }
  },
  "version": [
    2,
    0,
    3
  ]
}